<?xml version="1.0" encoding="UTF-8"?>
<BIF VERSION="0.3"  xmlns="http://www.cs.ubc.ca/labs/lci/fopi/ve/XMLBIFv0_3"
	xmlns:xsi="http://www.w3.org/2001/XMLSchema-instance"
	xsi:schemaLocation="http://www.cs.ubc.ca/labs/lci/fopi/ve/XMLBIFv0_3 http://www.cs.ubc.ca/labs/lci/fopi/ve/XMLBIFv0_3/XMLBIFv0_3.xsd">
<NETWORK>
<NAME>Untitled</NAME>
<PROPERTY>detailed = </PROPERTY>
<PROPERTY>short = </PROPERTY>

<VARIABLE TYPE="nature">
	<NAME>Rain 0</NAME>
	<OUTCOME>T</OUTCOME>
	<OUTCOME>F</OUTCOME>
	<PROPERTY>position = (7093.5771484375, 5209.1044921875)</PROPERTY>
</VARIABLE>

<VARIABLE TYPE="nature">
	<NAME>Rain 1</NAME>
	<OUTCOME>T</OUTCOME>
	<OUTCOME>F</OUTCOME>
	<PROPERTY>position = (7276.16455078125, 5211.5556640625)</PROPERTY>
</VARIABLE>

<VARIABLE TYPE="nature">
	<NAME>Umbrella 1</NAME>
	<OUTCOME>T</OUTCOME>
	<OUTCOME>F</OUTCOME>
	<OBS>T</OBS>
	<PROPERTY>position = (7263.91064453125, 5320.6181640625)</PROPERTY>
</VARIABLE>

<VARIABLE TYPE="nature">
	<NAME>Rain 2</NAME>
	<OUTCOME>T</OUTCOME>
	<OUTCOME>F</OUTCOME>
	<PROPERTY>position = (7404.83349609375, 5209.1044921875)</PROPERTY>
</VARIABLE>

<VARIABLE TYPE="nature">
	<NAME>Umbrella 2</NAME>
	<OUTCOME>T</OUTCOME>
	<OUTCOME>F</OUTCOME>
	<OBS>T</OBS>
	<PROPERTY>position = (7402.3837890625, 5320.6181640625)</PROPERTY>
</VARIABLE>

<VARIABLE TYPE="nature">
	<NAME>Rain 3</NAME>
	<OUTCOME>T</OUTCOME>
	<OUTCOME>F</OUTCOME>
	<PROPERTY>position = (7578.84375, 5206.65380859375)</PROPERTY>
</VARIABLE>

<VARIABLE TYPE="nature">
	<NAME>Umbrella 3</NAME>
	<OUTCOME>T</OUTCOME>
	<OUTCOME>F</OUTCOME>
	<OBS>T</OBS>
	<PROPERTY>position = (7582.52001953125, 5340.224609375)</PROPERTY>
</VARIABLE>

<VARIABLE TYPE="nature">
	<NAME>Rain 4</NAME>
	<OUTCOME>T</OUTCOME>
	<OUTCOME>F</OUTCOME>
	<PROPERTY>position = (7732.02197265625, 5204.203125)</PROPERTY>
</VARIABLE>

<VARIABLE TYPE="nature">
	<NAME>Umbrella 4</NAME>
	<OUTCOME>T</OUTCOME>
	<OUTCOME>F</OUTCOME>
	<OBS>F</OBS>
	<PROPERTY>position = (7733.24609375, 5334.09814453125)</PROPERTY>
</VARIABLE>

<VARIABLE TYPE="nature">
	<NAME>Rain 5</NAME>
	<OUTCOME>T</OUTCOME>
	<OUTCOME>F</OUTCOME>
	<PROPERTY>position = (7909.708984375, 5205.42822265625)</PROPERTY>
</VARIABLE>

<VARIABLE TYPE="nature">
	<NAME>Umbrella 5</NAME>
	<OUTCOME>T</OUTCOME>
	<OUTCOME>F</OUTCOME>
	<OBS>T</OBS>
	<PROPERTY>position = (7912.4228515625, 5338.052734375)</PROPERTY>
</VARIABLE>

<VARIABLE TYPE="nature">
	<NAME>Humidity 0</NAME>
	<OUTCOME>T</OUTCOME>
	<OUTCOME>F</OUTCOME>
	<PROPERTY>position = (7103.9677734375, 5091.77490234375)</PROPERTY>
</VARIABLE>

<VARIABLE TYPE="nature">
	<NAME>Humidity 1</NAME>
	<OUTCOME>T</OUTCOME>
	<OUTCOME>F</OUTCOME>
	<PROPERTY>position = (7280.62255859375, 5092.814453125)</PROPERTY>
</VARIABLE>

<VARIABLE TYPE="nature">
	<NAME>Humidity 2</NAME>
	<OUTCOME>T</OUTCOME>
	<OUTCOME>F</OUTCOME>
	<PROPERTY>position = (7408.43798828125, 5093.853515625)</PROPERTY>
</VARIABLE>

<VARIABLE TYPE="nature">
	<NAME>Humidity 3</NAME>
	<OUTCOME>T</OUTCOME>
	<OUTCOME>F</OUTCOME>
	<PROPERTY>position = (7573.66162109375, 5093.853515625)</PROPERTY>
</VARIABLE>

<VARIABLE TYPE="nature">
	<NAME>Humidity 4</NAME>
	<OUTCOME>T</OUTCOME>
	<OUTCOME>F</OUTCOME>
	<PROPERTY>position = (7728.494140625, 5092.814453125)</PROPERTY>
</VARIABLE>

<VARIABLE TYPE="nature">
	<NAME>Humidity 5</NAME>
	<OUTCOME>T</OUTCOME>
	<OUTCOME>F</OUTCOME>
	<PROPERTY>position = (7900.9921875, 5098.01025390625)</PROPERTY>
</VARIABLE>

<DEFINITION>
	<FOR>Rain 0</FOR>
	<TABLE>0.7 0.3</TABLE>
</DEFINITION>

<DEFINITION>
	<FOR>Rain 1</FOR>
	<GIVEN>Rain 0</GIVEN>
	<GIVEN>Humidity 0</GIVEN>
	<TABLE>0.7 0.3 0.7 0.3 0.3 0.7 0.3 0.7</TABLE>
</DEFINITION>

<DEFINITION>
	<FOR>Umbrella 1</FOR>
	<GIVEN>Rain 1</GIVEN>
	<TABLE>0.9 0.1 0.2 0.8</TABLE>
</DEFINITION>

<DEFINITION>
	<FOR>Rain 2</FOR>
	<GIVEN>Rain 1</GIVEN>
	<GIVEN>Humidity 1</GIVEN>
	<TABLE>0.7 0.3 0.7 0.3 0.3 0.7 0.3 0.7</TABLE>
</DEFINITION>

<DEFINITION>
	<FOR>Umbrella 2</FOR>
	<GIVEN>Rain 2</GIVEN>
	<TABLE>0.9 0.1 0.2 0.8</TABLE>
</DEFINITION>

<DEFINITION>
	<FOR>Rain 3</FOR>
	<GIVEN>Rain 2</GIVEN>
	<GIVEN>Humidity 2</GIVEN>
	<TABLE>0.7 0.3 0.7 0.3 0.3 0.7 0.3 0.7</TABLE>
</DEFINITION>

<DEFINITION>
	<FOR>Umbrella 3</FOR>
	<GIVEN>Rain 3</GIVEN>
	<TABLE>0.9 0.1 0.2 0.8</TABLE>
</DEFINITION>

<DEFINITION>
	<FOR>Rain 4</FOR>
	<GIVEN>Rain 3</GIVEN>
	<GIVEN>Humidity 3</GIVEN>
	<TABLE>0.7 0.3 0.7 0.3 0.3 0.7 0.3 0.7</TABLE>
</DEFINITION>

<DEFINITION>
	<FOR>Umbrella 4</FOR>
	<GIVEN>Rain 4</GIVEN>
	<TABLE>0.9 0.1 0.2 0.8</TABLE>
</DEFINITION>

<DEFINITION>
	<FOR>Rain 5</FOR>
	<GIVEN>Rain 4</GIVEN>
	<GIVEN>Humidity 4</GIVEN>
	<TABLE>0.7 0.3 0.7 0.3 0.3 0.7 0.3 0.7</TABLE>
</DEFINITION>

<DEFINITION>
	<FOR>Umbrella 5</FOR>
	<GIVEN>Rain 5</GIVEN>
	<TABLE>0.9 0.1 0.2 0.8</TABLE>
</DEFINITION>

<DEFINITION>
	<FOR>Humidity 0</FOR>
	<TABLE>0.5 0.5</TABLE>
</DEFINITION>

<DEFINITION>
	<FOR>Humidity 1</FOR>
	<GIVEN>Humidity 0</GIVEN>
	<TABLE>0.5 0.5 0.5 0.5</TABLE>
</DEFINITION>

<DEFINITION>
	<FOR>Humidity 2</FOR>
	<GIVEN>Humidity 1</GIVEN>
	<TABLE>0.5 0.5 0.5 0.5</TABLE>
</DEFINITION>

<DEFINITION>
	<FOR>Humidity 3</FOR>
	<GIVEN>Humidity 2</GIVEN>
	<TABLE>0.5 0.5 0.5 0.5</TABLE>
</DEFINITION>

<DEFINITION>
	<FOR>Humidity 4</FOR>
	<GIVEN>Humidity 3</GIVEN>
	<TABLE>0.5 0.5 0.5 0.5</TABLE>
</DEFINITION>

<DEFINITION>
	<FOR>Humidity 5</FOR>
	<GIVEN>Humidity 4</GIVEN>
	<TABLE>0.5 0.5 0.5 0.5</TABLE>
</DEFINITION>
</NETWORK>
</BIF>
